digraph Tree {
node [shape=box, fontname="helvetica"] ;
edge [fontname="helvetica"] ;
0 [label="duration_zscore <= 0.502\nentropy = 0.519\nsamples = 22605\nvalue = [19977, 2628]"] ;
1 [label="poutcome_is_success <= 0.5\nentropy = 0.337\nsamples = 18423\nvalue = [17271, 1152]"] ;
0 -> 1 [labeldistance=2.5, labelangle=45, headlabel="True"] ;
2 [label="duration_zscore <= -0.484\nentropy = 0.273\nsamples = 17855\nvalue = [17018, 837]"] ;
1 -> 2 ;
3 [label="entropy = 0.106\nsamples = 7989\nvalue = [7878, 111]"] ;
2 -> 3 ;
4 [label="entropy = 0.379\nsamples = 9866\nvalue = [9140, 726]"] ;
2 -> 4 ;
5 [label="entropy = 0.991\nsamples = 568\nvalue = [253, 315]"] ;
1 -> 5 ;
6 [label="gender <= 0.5\nentropy = 0.937\nsamples = 4182\nvalue = [2706, 1476]"] ;
0 -> 6 [labeldistance=2.5, labelangle=-45, headlabel="False"] ;
7 [label="duration_zscore <= 2.121\nentropy = 0.714\nsamples = 1812\nvalue = [1457, 355]"] ;
6 -> 7 ;
8 [label="entropy = 0.596\nsamples = 1447\nvalue = [1238, 209]"] ;
7 -> 8 ;
9 [label="entropy = 0.971\nsamples = 365\nvalue = [219, 146]"] ;
7 -> 9 ;
10 [label="duration_zscore <= 1.566\nentropy = 0.998\nsamples = 2370\nvalue = [1249, 1121]"] ;
6 -> 10 ;
11 [label="entropy = 0.935\nsamples = 1440\nvalue = [934, 506]"] ;
10 -> 11 ;
12 [label="entropy = 0.924\nsamples = 930\nvalue = [315, 615]"] ;
10 -> 12 ;
}